tree
version=v4
num_class=1
num_tree_per_iteration=1
label_index=0
max_feature_idx=5
objective=lambdarank
feature_names=Column_0 Column_1 Column_2 Column_3 Column_4 Column_5
feature_infos=[0.0052512586116790771:0.98974168300628662] [0.012091141194105148:0.99840354919433594] [0.010239723138511181:0.9868696928024292] [0.0047541451640427113:0.9978252649307251] [0.0022035338915884495:0.98488032817840576] [0.010948227718472481:0.99350190162658691]
tree_sizes=564 563 563 459 563 563 563 564 458 562 570 567 568 566 570 565 567 459 671 567 671 675 567 567 671 678 568 568 465 675 568 567 566 675 676 568 569 563 673 568 678 467 573 574 567 570 574 572 571 577

Tree=0
num_leaves=4
num_cat=0
split_feature=2 3 1
split_gain=1.16679 0.715365 0.307827
threshold=0.66891795396804821 0.44038696587085729 0.49989278614521032
decision_type=2 2 2
left_child=1 -1 -2
right_child=2 -3 -4
leaf_value=0.0052898457384435056 0.10146180900243602 -0.10537568956283348 0.016437780769992152
leaf_weight=1.2659559901803734 0.93351920787245013 1.0845323372632263 0.78295763954520226
leaf_count=31 17 29 23
internal_value=6.41191e-10 -0.045772 0.0626788
internal_weight=4.06697 2.35049 1.71648
internal_count=100 60 40
is_linear=0
shrinkage=0.1


Tree=1
num_leaves=4
num_cat=0
split_feature=0 1 4
split_gain=2.80434 1.87039 1.09941
threshold=0.50679695606231701 0.36698670685291296 0.58355268836021434
decision_type=2 2 2
left_child=2 -2 -1
right_child=1 -3 -4
leaf_value=0.090649977101551454 0.014020702840662409 -0.095175051657356902 0.0026555395422995474
leaf_weight=3.1276886789128184 2.8607225595042109 3.472965270280838 2.6003625048324466
leaf_count=25 17 35 23
internal_value=-2.94374e-09 -0.0458549 0.0507032
internal_weight=12.0617 6.33369 5.72805
internal_count=100 52 48
is_linear=0
shrinkage=0.1


Tree=2
num_leaves=4
num_cat=0
split_feature=2 0 2
split_gain=2.96685 1.24653 1.30101
threshold=0.72048386931419384 0.72756940126419078 0.46257069706916815
decision_type=2 2 2
left_child=1 2 -1
right_child=-2 -3 -4
leaf_value=-0.084648344905014605 0.057725296643900192 -0.11911504461367235 0.032709766924530502
leaf_weight=1.6517263259738686 4.8005780819803476 1.7585774306207893 2.2065003430470824
leaf_count=27 31 27 15
internal_value=-2.21267e-09 -0.0493367 -0.0175318
internal_weight=10.4174 5.6168 3.85823
internal_count=100 69 42
is_linear=0
shrinkage=0.1


Tree=3
num_leaves=3
num_cat=0
split_feature=3 3
split_gain=4.29502 3.99239
threshold=0.24682628363370898 0.63397759199142467
decision_type=2 2
left_child=-1 -2
right_child=1 -3
leaf_value=0.099139356978723725 -0.12253298501644982 0.037250335993097933
leaf_weight=2.9667620463296771 3.3031341889873147 2.969638466835022
leaf_count=33 36 31
internal_value=2.18227e-09 -0.0468888
internal_weight=9.23953 6.27277
internal_count=100 67
is_linear=0
shrinkage=0.1


Tree=4
num_leaves=4
num_cat=0
split_feature=2 1 5
split_gain=2.22521 1.99866 0.636738
threshold=0.8006291687488557 0.36698670685291296 0.58326303958892833
decision_type=2 2 2
left_child=1 -1 -3
right_child=-2 2 -4
leaf_value=0.026667339263883223 0.072618931441075826 -0.052299943849734444 -0.14483980685708145
leaf_weight=2.7240582630038261 2.8315635286271572 1.7702608574181797 1.2819953849539159
leaf_count=30 22 28 20
internal_value=-4.36834e-10 -0.035598 -0.0911681
internal_weight=8.60788 5.77631 3.05226
internal_count=100 78 48
is_linear=0
shrinkage=0.1


Tree=5
num_leaves=4
num_cat=0
split_feature=3 4 1
split_gain=1.75459 1.94706 0.834205
threshold=0.24682628363370898 0.75260302424430858 0.49989278614521032
decision_type=2 2 2
left_child=-1 2 -2
right_child=1 -3 -4
leaf_value=0.055339829416384156 -0.049817534645715852 -0.13407943783988457 0.053682886103652641
leaf_weight=3.3281662203371525 1.4729462023824456 1.4879269674420355 1.6522739361971615
leaf_count=33 22 24 21
internal_value=3.10047e-09 -0.039925 0.00490215
internal_weight=7.94131 4.61315 3.12522
internal_count=100 67 43
is_linear=0
shrinkage=0.1


Tree=6
num_leaves=4
num_cat=0
split_feature=2 3 5
split_gain=1.3568 1.55577 0.742484
threshold=0.73950701951980602 0.085069715976715102 0.36653347313404089
decision_type=2 2 2
left_child=1 -1 -3
right_child=-2 2 -4
leaf_value=0.06423177270072912 0.045996091943807361 -0.014082369229670259 -0.11561771701769084
leaf_weight=1.0767719168215988 3.4716232270002365 1.1855060532689097 1.8349208449944852
leaf_count=12 28 24 36
internal_value=-3.01466e-09 -0.0389732 -0.0757655
internal_weight=7.56882 4.0972 3.02043
internal_count=100 72 60
is_linear=0
shrinkage=0.1


Tree=7
num_leaves=4
num_cat=0
split_feature=2 3 2
split_gain=1.20358 1.16356 0.592782
threshold=0.46257069706916815 0.24682628363370898 0.27539855241775518
decision_type=2 2 2
left_child=2 -2 -1
right_child=1 -3 -4
leaf_value=-0.012304045765853627 0.082194041662229572 -0.015132319520944282 -0.12138329999069267
leaf_weight=1.0166543954983351 2.1294124666601419 2.9029538845643401 0.97696818225085724
leaf_count=24 16 39 21
internal_value=1.01155e-09 0.0260507 -0.065758
internal_weight=7.02599 5.03237 1.99362
internal_count=100 55 45
is_linear=0
shrinkage=0.1


Tree=8
num_leaves=3
num_cat=0
split_feature=3 3
split_gain=1.2271 1.22732
threshold=0.24682628363370898 0.63397759199142467
decision_type=2 2
left_child=-1 -2
right_child=1 -3
leaf_value=0.043351200417668344 -0.10873388618214389 0.011333809410101186
leaf_weight=3.3254155870527029 1.526456846855581 1.9249354917556045
leaf_count=33 36 31
internal_value=3.61951e-09 -0.0417689
internal_weight=6.77681 3.45139
internal_count=100 67
is_linear=0
shrinkage=0.1


Tree=9
num_leaves=4
num_cat=0
split_feature=0 3 1
split_gain=1.03908 1.2195 0.39103
threshold=0.53068280220031749 0.24682628363370898 0.36698670685291296
decision_type=2 2 2
left_child=1 -1 -2
right_child=2 -3 -4
leaf_value=0.089797938186123444 -0.010804025169129783 -0.021902037307405663 -0.089087123469296939
leaf_weight=1.9014329724013808 1.2863479917868974 2.0112901413813233 1.2661276524886487
leaf_count=17 16 34 33
internal_value=3.43923e-10 0.0323799 -0.0496355
internal_weight=6.4652 3.91272 2.55248
internal_count=100 51 49
is_linear=0
shrinkage=0.1


Tree=10
num_leaves=4
num_cat=0
split_feature=0 3 3
split_gain=0.694571 0.775457 0.565457
threshold=0.53068280220031749 0.24682628363370898 0.23646435886621478
decision_type=2 2 2
left_child=1 -1 -2
right_child=2 -3 -4
leaf_value=0.071913206569911084 -0.10042718226708176 -0.018083871905358383 -0.00026107097882484092
leaf_weight=1.8795937113463881 0.99113914184272323 1.9514199588447807 1.3064677119255064
leaf_count=17 15 34 34
internal_value=-1.59775e-09 0.026071 -0.0434706
internal_weight=6.12862 3.83101 2.29761
internal_count=100 51 49
is_linear=0
shrinkage=0.1


Tree=11
num_leaves=4
num_cat=0
split_feature=5 5 5
split_gain=0.643765 1.03813 0.249879
threshold=0.58326303958892833 0.48313029110431677 0.25205025076866155
decision_type=2 2 2
left_child=1 2 -1
right_child=-2 -3 -4
leaf_value=0.012490288734075766 -0.043480080510754651 0.093637016487259861 -0.052184671356898263
leaf_weight=1.4318944225087769 2.1752951154485345 1.3903530389070509 1.0250381943769751
leaf_count=27 37 12 24
internal_value=-4.74064e-10 0.0245841 -0.0144923
internal_weight=6.02258 3.84729 2.45693
internal_count=100 63 51
is_linear=0
shrinkage=0.1


Tree=12
num_leaves=4
num_cat=0
split_feature=3 3 5
split_gain=0.491886 0.86995 0.093101
threshold=0.24682628363370898 0.75153806805610668 0.48313029110431677
decision_type=2 2 2
left_child=-1 2 -2
right_child=1 -3 -4
leaf_value=0.028563302965962063 -0.10430283332147745 0.030528986429005756 -0.055832649140148662
leaf_weight=2.9807772785425186 0.76427252497524045 1.3274935297667978 0.82303264923393726
leaf_count=33 22 25 20
internal_value=-1.09986e-09 -0.0292099 -0.0791706
internal_weight=5.89558 2.9148 1.58731
internal_count=100 67 42
is_linear=0
shrinkage=0.1


Tree=13
num_leaves=4
num_cat=0
split_feature=1 3 0
split_gain=0.475898 1.1484 0.432447
threshold=0.36698670685291296 0.75153806805610668 0.46838040649890905
decision_type=2 2 2
left_child=-1 2 -2
right_child=1 -3 -4
leaf_value=0.033213434391276192 -0.016010723696832523 0.064193116662059416 -0.10414715316240115
leaf_weight=2.4566448219120502 1.0079633807763464 0.99775797966867674 1.2434769612736998
leaf_count=36 17 17 30
internal_value=-4.76916e-10 -0.0251119 -0.0646887
internal_weight=5.70584 3.2492 2.25144
internal_count=100 64 47
is_linear=0
shrinkage=0.1


Tree=14
num_leaves=4
num_cat=0
split_feature=3 5 3
split_gain=0.407927 0.515298 0.761325
threshold=0.24682628363370898 0.58326303958892833 0.75153806805610668
decision_type=2 2 2
left_child=-1 2 -2
right_child=1 -3 -4
leaf_value=0.025978562484103098 -0.069667887123455632 -0.092807146279238098 0.061116823835166201
leaf_weight=2.8875542152673006 0.81349026551470183 0.8448764313943683 0.98287517391145229
leaf_count=33 26 24 17
internal_value=-3.77432e-10 -0.0284012 0.00189052
internal_weight=5.5288 2.64124 1.79637
internal_count=100 67 43
is_linear=0
shrinkage=0.1


Tree=15
num_leaves=4
num_cat=0
split_feature=2 4 2
split_gain=0.413363 0.650047 0.693262
threshold=0.8006291687488557 0.87239050865173351 0.27539855241775518
decision_type=2 2 2
left_child=1 2 -1
right_child=-2 -3 -4
leaf_value=0.021971037305449803 0.045517263730599632 0.039613425351947187 -0.086830868045655041
leaf_weight=0.92468409240245897 1.449052322655916 1.3230470763519404 1.5971694379113612
leaf_count=23 22 16 39
internal_value=-3.1534e-09 -0.0171544 -0.0469366
internal_weight=5.29395 3.8449 2.52185
internal_count=100 78 62
is_linear=0
shrinkage=0.1


Tree=16
num_leaves=4
num_cat=0
split_feature=1 3 1
split_gain=0.440375 0.804266 0.282159
threshold=0.36698670685291296 0.75153806805610668 0.62720513343811046
decision_type=2 2 2
left_child=-1 2 -2
right_child=1 -3 -4
leaf_value=0.032517303653285583 -0.11390421468902008 0.045685657361687115 -0.033860121166914302
leaf_weight=2.3019657600671053 0.72949387785047326 1.0039182687178252 1.1112178768962619
leaf_count=36 17 17 30
internal_value=-2.63635e-09 -0.026314 -0.0655825
internal_weight=5.1466 2.84463 1.84071
internal_count=100 64 47
is_linear=0
shrinkage=0.1


Tree=17
num_leaves=3
num_cat=0
split_feature=1 4
split_gain=0.377479 0.5337
threshold=0.36698670685291296 0.58355268836021434
decision_type=2 2
left_child=-1 -2
right_child=1 -3
leaf_value=0.029305556614917263 0.01113799726189286 -0.079016128431775412
leaf_weight=2.357060169801116 1.6227637100964787 1.102930433116853
leaf_count=36 33 31
internal_value=1.03411e-09 -0.0253422
internal_weight=5.08275 2.72569
internal_count=100 64
is_linear=0
shrinkage=0.1


Tree=18
num_leaves=5
num_cat=0
split_feature=2 3 2 0
split_gain=0.339537 0.605011 0.422319 0.136485
threshold=0.42680513858795172 0.24682628363370898 0.2507352232933045 0.35317726433277136
decision_type=2 2 2 2
left_child=2 -2 -1 -3
right_child=1 3 -4 -5
leaf_value=0.01336581517928432 0.062038815133429931 0.0061098645444109603 -0.087702979899344169 -0.049467360491594038
leaf_weight=0.82695741159841396 1.6297600995749237 0.8608462009578941 0.82677832059562206 0.9078731038607657
leaf_count=21 16 17 21 25
internal_value=-1.86183e-09 0.018084 -0.0371631 -0.0224176
internal_weight=5.05222 3.39848 1.65374 1.76872
internal_count=100 58 42 42
is_linear=0
shrinkage=0.1


Tree=19
num_leaves=4
num_cat=0
split_feature=0 3 3
split_gain=0.200638 0.650714 0.572877
threshold=0.53068280220031749 0.24682628363370898 0.23646435886621478
decision_type=2 2 2
left_child=1 -1 -2
right_child=2 -3 -4
leaf_value=0.063486970125497436 -0.093947948388985125 -0.030529164568321866 0.019226974941617958
leaf_weight=1.4657205790281298 0.74083713069558133 1.479070321191102 1.1286612176336346
leaf_count=17 15 34 34
internal_value=-2.11888e-09 0.0162658 -0.0256215
internal_weight=4.81429 2.94479 1.8695
internal_count=100 51 49
is_linear=0
shrinkage=0.1


Tree=20
num_leaves=5
num_cat=0
split_feature=2 5 3 5
split_gain=0.288849 0.339187 0.324395 0.129318
threshold=0.42680513858795172 0.28235843777656561 0.24682628363370898 0.43102163076400762
decision_type=2 2 2 2
left_child=1 -1 -2 -4
right_child=2 -3 3 -5
leaf_value=0.021068370485033041 0.052036631941592748 -0.07447718611329425 -0.044709702055176929 0.010945718430126891
leaf_weight=0.62700034305453278 1.4527601767331364 0.91196879791095853 0.71350073162466277 1.0062980609945951
leaf_count=13 16 29 18 24
internal_value=4.99114e-10 -0.0355504 0.0172451 -0.0121443
internal_weight=4.71153 1.53897 3.17256 1.7198
internal_count=100 42 58 42
is_linear=0
shrinkage=0.1


Tree=21
num_leaves=5
num_cat=0
split_feature=5 5 1 2
split_gain=0.218478 0.426423 0.220579 0.0745916
threshold=0.55887785553932201 0.38825690746307379 0.25217939913272863 0.60235658288002025
decision_type=2 2 2 2
left_child=1 3 -2 -1
right_child=2 -3 -4 -5
leaf_value=0.011974832850889782 0.0087213747612430795 0.075469160760709197 -0.059876540439202 -0.028937573601397135
leaf_weight=0.84397336980327986 0.92210259847342946 0.87799521163105954 0.95342190749943256 0.9441846776753664
leaf_count=20 11 18 29 22
internal_value=-3.27329e-09 0.0183956 -0.0261503 -0.00962777
internal_weight=4.54168 2.66615 1.87552 1.78816
internal_count=100 60 40 42
is_linear=0
shrinkage=0.1


Tree=22
num_leaves=4
num_cat=0
split_feature=2 5 5
split_gain=0.245519 0.309709 0.127301
threshold=0.8006291687488557 0.55887785553932201 0.34337256848812109
decision_type=2 2 2
left_child=1 2 -1
right_child=-2 -3 -4
leaf_value=-0.013114027619692504 0.03722563343882667 -0.055556969647110925 0.037719221259555791
leaf_weight=1.1279351855628199 1.2668850291520355 1.1764741856604812 0.87468703370541323
leaf_count=28 22 29 21
internal_value=-5.25979e-10 -0.0148346 0.00908845
internal_weight=4.44598 3.1791 2.00262
internal_count=100 78 49
is_linear=0
shrinkage=0.1


Tree=23
num_leaves=4
num_cat=0
split_feature=0 3 3
split_gain=0.160763 0.416064 0.384197
threshold=0.53068280220031749 0.44038696587085729 0.23646435886621478
decision_type=2 2 2
left_child=1 -1 -2
right_child=2 -3 -4
leaf_value=0.052939781918417743 -0.083134285177820233 -0.025683472633774719 0.013637403889847849
leaf_weight=1.4044956564903261 0.66907525248825539 1.2924272189848123 1.060569762252271
leaf_count=23 15 28 34
internal_value=1.22764e-12 0.0152617 -0.0237966
internal_weight=4.42657 2.69692 1.72965
internal_count=100 51 49
is_linear=0
shrinkage=0.1


Tree=24
num_leaves=5
num_cat=0
split_feature=5 5 1 0
split_gain=0.179385 0.6305 0.257319 0.11837
threshold=0.55887785553932201 0.43102163076400762 0.23158879578113559 0.66468936204910289
decision_type=2 2 2 2
left_child=1 3 -2 -1
right_child=2 -3 -4 -5
leaf_value=-0.039846021208138488 0.016902945865806079 0.087538243196405602 -0.060916441351938383 0.012595646127473589
leaf_weight=1.0123709747567775 0.78613980952650286 0.84478268446400751 0.92472467757761478 0.74875265732407559
leaf_count=25 10 15 30 20
internal_value=5.35992e-10 0.0165174 -0.0251585 -0.0175501
internal_weight=4.31677 2.60591 1.71086 1.76112
internal_count=100 60 40 45
is_linear=0
shrinkage=0.1


Tree=25
num_leaves=5
num_cat=0
split_feature=5 5 0 4
split_gain=0.122566 0.314272 0.122217 0.0567967
threshold=0.55887785553932201 0.38825690746307379 0.57986357808113109 0.5408843755722047
decision_type=2 2 2 2
left_child=1 2 -1 -2
right_child=3 -3 -4 -5
leaf_value=-0.034998755104775979 -0.041185036247742168 0.061609163815469048 0.018869268754696553 -0.0038263346484543564
leaf_weight=0.96913953032344602 0.77165491646155693 0.89171700319275249 0.74491313192993402 0.86103364638984203
leaf_count=22 19 18 20 21
internal_value=-2.51318e-09 0.0134606 -0.0115882 -0.0214831
internal_weight=4.23846 2.60577 1.71405 1.63269
internal_count=100 60 42 40
is_linear=0
shrinkage=0.1


Tree=26
num_leaves=4
num_cat=0
split_feature=5 5 1
split_gain=0.294688 0.299334 0.211947
threshold=0.19723007082939151 0.55887785553932201 0.23158879578113559
decision_type=2 2 2
left_child=-1 -2 -3
right_child=1 2 -4
leaf_value=-0.053051909432394698 0.039696250781348454 0.018753671415306344 -0.054774201703181563
leaf_weight=0.842165415175259 1.8916681027039888 0.7561351954936979 0.81414170144125819
leaf_count=21 39 10 30
internal_value=-6.27501e-10 0.0129056 -0.0193683
internal_weight=4.30411 3.46194 1.57028
internal_count=100 79 40
is_linear=0
shrinkage=0.1


Tree=27
num_leaves=4
num_cat=0
split_feature=0 4 1
split_gain=0.201016 0.456497 0.455107
threshold=0.72756940126419078 0.44023086130619055 0.25217939913272863
decision_type=2 2 2
left_child=1 -1 -3
right_child=-2 2 -4
leaf_value=-0.045195693623835048 -0.034433240769170897 0.099823138098460842 0.0029140817056938265
leaf_weight=0.90262603573501143 1.2040532398968933 0.78719775471836362 1.2606795774772761
leaf_count=21 34 14 31
internal_value=2.06936e-09 0.0140517 0.0401656
internal_weight=4.15456 2.9505 2.04788
internal_count=100 66 45
is_linear=0
shrinkage=0.1


Tree=28
num_leaves=3
num_cat=0
split_feature=0 3
split_gain=0.136517 0.328016
threshold=0.72756940126419078 0.41367143392562872
decision_type=2 2
left_child=1 -1
right_child=-2 -3
leaf_value=0.044530978904855488 -0.028184413463943431 -0.022652679359302284
leaf_weight=1.4895072579383852 1.2128389966674147 1.4190845116972921
leaf_count=28 34 38
internal_value=-1.42975e-09 0.0117525
internal_weight=4.12143 2.90859
internal_count=100 66
is_linear=0
shrinkage=0.1


Tree=29
num_leaves=5
num_cat=0
split_feature=3 3 3 5
split_gain=0.204204 0.295756 0.315767 0.173047
threshold=0.15099889785051349 0.24682628363370898 0.75153806805610668 0.48313029110431677
decision_type=2 2 2 2
left_child=-1 -2 3 -3
right_child=1 2 -4 -5
leaf_value=-0.038742775946285009 0.065570304957729419 -0.081430869711071496 0.030427728460348233 -0.0011313733694724884
leaf_weight=1.0192441781982777 0.79116979241371188 0.58355769002810143 1.1730383075773714 0.49688858771696687
leaf_count=21 12 22 25 20
internal_value=2.48202e-09 0.0129697 -0.00549766 -0.0445018
internal_weight=4.0639 3.04465 2.25348 1.08045
internal_count=100 79 67 42
is_linear=0
shrinkage=0.1


Tree=30
num_leaves=4
num_cat=0
split_feature=2 0 3
split_gain=0.151183 0.476711 0.164125
threshold=0.27539855241775518 0.53068280220031749 0.45637793838977819
decision_type=2 2 2
left_child=-1 2 -2
right_child=1 -3 -4
leaf_value=0.037789017570770078 0.050269178252823676 -0.05886938802745291 -0.0081764119764418403
leaf_weight=0.83628258761018548 0.95956005901098274 1.222538453992456 0.9623420424759388
leaf_count=24 16 36 24
internal_value=-6.48137e-10 -0.0100502 0.0210041
internal_weight=3.98072 3.14444 1.9219
internal_count=100 76 40
is_linear=0
shrinkage=0.1


Tree=31
num_leaves=4
num_cat=0
split_feature=3 5 0
split_gain=0.246539 0.321921 0.146283
threshold=0.15099889785051349 0.58326303958892833 0.57986357808113109
decision_type=2 2 2
left_child=-1 2 -2
right_child=1 -3 -4
leaf_value=-0.0424394322186568 0.012393210704987183 -0.042723443213676188 0.064976622105436865
leaf_weight=1.0153372855857017 1.2891850285232074 0.73000047355890263 0.89726615138351906
leaf_count=21 30 28 21
internal_value=-1.61405e-09 0.0147749 0.0339722
internal_weight=3.93179 2.91645 2.18645
internal_count=100 79 51
is_linear=0
shrinkage=0.1


Tree=32
num_leaves=4
num_cat=0
split_feature=3 2 5
split_gain=0.505962 0.34127 0.174393
threshold=0.15099889785051349 0.27539855241775518 0.43102163076400762
decision_type=2 2 2
left_child=-1 -2 -3
right_child=1 2 -4
leaf_value=-0.057107292701364422 0.080314627184813997 -0.030557465453391764 0.026062254821143271
leaf_weight=1.1252131513319907 0.74310078518465195 0.9444625363685194 1.2829434969462452
leaf_count=21 16 28 35
internal_value=1.15969e-09 0.021632 0.00205442
internal_weight=4.09572 2.97051 2.22741
internal_count=100 79 63
is_linear=0
shrinkage=0.1


Tree=33
num_leaves=5
num_cat=0
split_feature=5 3 5 5
split_gain=0.106902 0.21127 0.389794 0.0973731
threshold=0.55887785553932201 0.75153806805610668 0.34337256848812109 0.84503212571144115
decision_type=2 2 2 2
left_child=1 2 -1 -2
right_child=3 -3 -4 -5
leaf_value=-0.059025494942684331 -0.046707999003444939 0.0506205436410909 0.038077133030823579 0.0050327890504883385
leaf_weight=0.80446747224777959 0.75118677364662267 0.92136507853865612 0.85042023146525025 0.70516701834276319
leaf_count=23 24 17 20 16
internal_value=1.27021e-10 0.0122416 -0.00912601 -0.0216551
internal_weight=4.03261 2.57625 1.65489 1.45635
internal_count=100 60 43 40
is_linear=0
shrinkage=0.1


Tree=34
num_leaves=5
num_cat=0
split_feature=5 5 0 2
split_gain=0.19089 0.280895 0.239929 0.152006
threshold=0.55887785553932201 0.43102163076400762 0.66468936204910289 0.72048386931419384
decision_type=2 2 2 2
left_child=1 2 -1 -2
right_child=3 -3 -4 -5
leaf_value=-0.041860748026660129 -0.060776210897660402 0.061404955039155266 0.032732305340485539 0.0073544634549657581
leaf_weight=0.94277955032885141 0.74600567715242483 0.88755859620869149 0.79467538977041841 0.58370069088414311
leaf_count=25 26 15 20 14
internal_value=7.66835e-10 0.0156367 -0.00774345 -0.0308689
internal_weight=3.95472 2.62501 1.73745 1.32971
internal_count=100 60 45 40
is_linear=0
shrinkage=0.1


Tree=35
num_leaves=4
num_cat=0
split_feature=0 4 1
split_gain=0.185377 0.294926 0.426028
threshold=0.7557811737060548 0.48994718492031103 0.36698670685291296
decision_type=2 2 2
left_child=1 -1 -3
right_child=-2 2 -4
leaf_value=-0.029895419690406884 -0.038045105735239344 0.093705709795948569 -0.0027541700206087892
leaf_weight=1.0600822628475732 0.96611808147281397 0.76403737999498833 1.142627654597163
leaf_count=28 28 15 29
internal_value=1.38716e-09 0.0123893 0.0358992
internal_weight=3.93287 2.96675 1.90667
internal_count=100 72 44
is_linear=0
shrinkage=0.1


Tree=36
num_leaves=4
num_cat=0
split_feature=3 0 1
split_gain=0.20452 0.373056 0.351487
threshold=0.75153806805610668 0.70497292280197155 0.25217939913272863
decision_type=2 2 2
left_child=1 2 -1
right_child=-2 -3 -4
leaf_value=0.058316494964771398 0.033898672003695812 -0.069798226540218389 -0.030350290428415458
leaf_weight=0.82573527283966608 1.2200383525341747 0.85849429061636318 0.97495948895812035
leaf_count=16 25 30 29
internal_value=-4.0731e-09 -0.0155527 0.0103092
internal_weight=3.87923 2.65919 1.80069
internal_count=100 75 45
is_linear=0
shrinkage=0.1


Tree=37
num_leaves=4
num_cat=0
split_feature=2 5 0
split_gain=0.153614 0.266537 0.113952
threshold=0.8006291687488557 0.55887785553932201 0.66468936204910289
decision_type=2 2 2
left_child=1 2 -1
right_child=-2 -3 -4
leaf_value=-0.014836834523984222 0.032860499406639453 -0.062085372980944034 0.033384861086791992
leaf_weight=1.075502579566092 1.0338957076892255 0.77427566517144431 0.90022597555071104
leaf_count=26 22 29 23
internal_value=3.0766e-10 -0.0123543 0.00713502
internal_weight=3.7839 2.75 1.97573
internal_count=100 78 49
is_linear=0
shrinkage=0.1


Tree=38
num_leaves=5
num_cat=0
split_feature=0 3 3 3
split_gain=0.148141 0.139619 0.329498 0.227004
threshold=0.17825356870889666 0.15099889785051349 0.24682628363370898 0.75153806805610668
decision_type=2 2 2 2
left_child=-1 -2 -3 -4
right_child=1 2 3 -5
leaf_value=0.041263187866463692 -0.047232753408660927 0.061257954586825286 -0.058857730851080786 0.015686715375591593
leaf_weight=0.706601902842522 0.74367437697947059 0.6767794415354732 0.81994122196920194 0.81412187311798334
leaf_count=15 19 11 36 19
internal_value=3.30416e-10 -0.00954542 0.0025831 -0.0217182
internal_weight=3.76112 3.05452 2.31084 1.63406
internal_count=100 85 66 55
is_linear=0
shrinkage=0.1


Tree=39
num_leaves=4
num_cat=0
split_feature=2 5 4
split_gain=0.142265 0.172655 0.102945
threshold=0.8006291687488557 0.55887785553932201 0.63805472850799572
decision_type=2 2 2
left_child=1 2 -1
right_child=-2 -3 -4
leaf_value=0.02757819808923366 0.031940247552171203 -0.052646776945318809 -0.018976984082038333
leaf_weight=0.93423020932823486 1.0101153803989289 0.753933417610824 0.96620006021112204
leaf_count=24 22 29 25
internal_value=-1.78778e-09 -0.0121548 0.00390902
internal_weight=3.66448 2.65436 1.90043
internal_count=100 78 49
is_linear=0
shrinkage=0.1


Tree=40
num_leaves=5
num_cat=0
split_feature=5 3 1 0
split_gain=0.131577 0.153779 0.345862 0.0436707
threshold=0.23884416371583941 0.75153806805610668 0.36698670685291296 0.46838040649890905
decision_type=2 2 2 2
left_child=-1 2 -2 -4
right_child=1 -3 3 -5
leaf_value=-0.035633708932151661 0.041141530778441349 0.046810989950013475 -0.023349896648105408 -0.063611364560001188
leaf_weight=0.80426610819995437 0.89485374838113818 0.81529932003468264 0.55325449164956786 0.52511371532455087
leaf_count=24 20 16 15 25
internal_value=4.79557e-10 0.0102775 -0.00481749 -0.0429553
internal_weight=3.59279 2.78852 1.97322 1.07837
internal_count=100 76 60 40
is_linear=0
shrinkage=0.1


Tree=41
num_leaves=3
num_cat=0
split_feature=0 3
split_gain=0.091752 0.189503
threshold=0.72756940126419078 0.41367143392562872
decision_type=2 2
left_child=1 -1
right_child=-2 -3
leaf_value=0.038119310129109379 -0.026573512539950456 -0.016229537101832548
leaf_weight=1.2316665546968586 0.94899619068019081 1.3390474026091395
leaf_count=28 34 38
internal_value=-6.53753e-10 0.00980979
internal_weight=3.51971 2.57071
internal_count=100 66
is_linear=0
shrinkage=0.1


Tree=42
num_leaves=4
num_cat=0
split_feature=2 5 0
split_gain=0.0972815 0.151379 0.103093
threshold=0.8006291687488557 0.55887785553932201 0.66468936204910289
decision_type=2 2 2
left_child=1 2 -1
right_child=-2 -3 -4
leaf_value=-0.016726322123177404 0.027179435478349209 -0.049572269679875783 0.031128617802743043
leaf_weight=0.99223073059693045 0.95520009193569411 0.70636952947825182 0.82402971107512712
leaf_count=26 22 29 23
internal_value=-1.84816e-09 -0.0102916 0.00498526
internal_weight=3.47783 2.52263 1.81626
internal_count=100 78 49
is_linear=0
shrinkage=0.1


Tree=43
num_leaves=4
num_cat=0
split_feature=0 4 3
split_gain=0.0799122 0.193207 0.180232
threshold=0.72756940126419078 0.48994718492031103 0.49487192928791052
decision_type=2 2 2
left_child=1 -1 -3
right_child=-2 2 -4
leaf_value=-0.026726945849510138 -0.025123251264271187 0.064487377513364211 -0.0032946126847586293
leaf_weight=0.93416093615815121 0.92458923184312869 0.78731452394276835 0.78184950305148959
leaf_count=26 34 17 23
internal_value=3.77391e-10 0.00927913 0.0307144
internal_weight=3.42791 2.50332 1.56916
internal_count=100 66 40
is_linear=0
shrinkage=0.1


Tree=44
num_leaves=4
num_cat=0
split_feature=4 3 1
split_gain=0.106 0.382218 0.278771
threshold=0.58355268836021434 0.41367143392562872 0.49989278614521032
decision_type=2 2 2
left_child=2 -2 -1
right_child=1 -3 -4
leaf_value=-0.033172216124550562 0.026672374767654494 -0.06690888206402841 0.051636426305091299
leaf_weight=0.63749783951789163 0.93401914392597951 0.81928360112942755 0.98868293804116547
leaf_count=23 23 29 25
internal_value=-1.07714e-09 -0.0170563 0.0183896
internal_weight=3.37948 1.7533 1.62618
internal_count=100 52 48
is_linear=0
shrinkage=0.1


Tree=45
num_leaves=4
num_cat=0
split_feature=0 2 0
split_gain=0.127278 0.10951 0.127475
threshold=0.17825356870889666 0.29166468977928167 0.53068280220031749
decision_type=2 2 2
left_child=-1 -2 -3
right_child=1 2 -4
leaf_value=0.039231614248356105 0.027363460459599004 0.0028858098984085702 -0.047556731548614409
leaf_weight=0.66021299827843938 0.60565887647680972 1.0514948116615417 0.95693204808048893
leaf_count=15 22 28 35
internal_value=-6.09756e-10 -0.00990833 -0.021148
internal_weight=3.2743 2.61409 2.00843
internal_count=100 85 63
is_linear=0
shrinkage=0.1


Tree=46
num_leaves=4
num_cat=0
split_feature=0 3 0
split_gain=0.10574 0.0575788 0.144396
threshold=0.17825356870889666 0.15099889785051349 0.66468936204910289
decision_type=2 2 2
left_child=-1 -2 -3
right_child=1 2 -4
leaf_value=0.035803049979441601 -0.035582429770531929 -0.025670536672151002 0.028786248775266372
leaf_weight=0.65758253820240531 0.6234165285713974 1.0616227244026957 0.89944456703960884
leaf_count=15 19 36 30
internal_value=-1.35013e-09 -0.00910954 -0.000693903
internal_weight=3.24207 2.58448 1.96107
internal_count=100 85 66
is_linear=0
shrinkage=0.1


Tree=47
num_leaves=4
num_cat=0
split_feature=5 0 5
split_gain=0.0824271 0.0782542 0.157043
threshold=0.23884416371583941 0.25174483656883245 0.4976098239421845
decision_type=2 2 2
left_child=-1 -2 -3
right_child=1 2 -4
leaf_value=-0.029789757178254925 0.036940104516250197 0.032767361318710664 -0.027179998819429421
leaf_weight=0.7211251514963809 0.70067678857594762 0.74405418289825309 1.0589266044553367
leaf_count=24 16 22 38
internal_value=-2.98729e-10 0.0085803 -0.00244092
internal_weight=3.22478 2.50366 1.80298
internal_count=100 76 60
is_linear=0
shrinkage=0.1


Tree=48
num_leaves=4
num_cat=0
split_feature=5 2 0
split_gain=0.0952059 0.145077 0.116059
threshold=0.43102163076400762 0.73950701951980602 0.66468936204910289
decision_type=2 2 2
left_child=2 -2 -1
right_child=1 -3 -4
leaf_value=-0.044406173339762232 -0.0086119494695312462 0.049338184738969698 0.01299464427821403
leaf_weight=0.80245913751423381 1.0408136365003882 0.73855755012482394 0.62783475173637271
leaf_count=25 39 16 20
internal_value=1.28034e-09 0.0154412 -0.0192098
internal_weight=3.20967 1.77937 1.43029
internal_count=100 55 45
is_linear=0
shrinkage=0.1


Tree=49
num_leaves=4
num_cat=0
split_feature=0 2 0
split_gain=0.0655729 0.0814851 0.0968184
threshold=0.17825356870889666 0.29166468977928167 0.70497292280197155
decision_type=2 2 2
left_child=-1 -2 -3
right_child=1 2 -4
leaf_value=0.029144588345172057 0.025695177369055355 -7.3283935544525891e-05 -0.046229373529015141
leaf_weight=0.6207670429721478 0.58401582879014347 1.2503286753781138 0.71397815132513631
leaf_count=15 22 37 26
internal_value=-4.48851e-10 -0.00709957 -0.0168499
internal_weight=3.16909 2.54832 1.96431
internal_count=100 85 63
is_linear=0
shrinkage=0.1


end of trees

feature_importances:
Column_3=40
Column_5=34
Column_0=31
Column_2=23
Column_1=17
Column_4=10

parameters:
[boosting: gbdt]
[objective: lambdarank]
[metric: ndcg]
[tree_learner: serial]
[device_type: cpu]
[data_sample_strategy: bagging]
[data: ]
[valid: ]
[num_iterations: 50]
[learning_rate: 0.1]
[num_leaves: 31]
[num_threads: 0]
[seed: 0]
[deterministic: 0]
[force_col_wise: 0]
[force_row_wise: 0]
[histogram_pool_size: -1]
[max_depth: -1]
[min_data_in_leaf: 20]
[min_sum_hessian_in_leaf: 0.001]
[bagging_fraction: 1]
[pos_bagging_fraction: 1]
[neg_bagging_fraction: 1]
[bagging_freq: 0]
[bagging_seed: 3]
[bagging_by_query: 0]
[feature_fraction: 1]
[feature_fraction_bynode: 1]
[feature_fraction_seed: 2]
[extra_trees: 0]
[extra_seed: 6]
[early_stopping_round: 0]
[early_stopping_min_delta: 0]
[first_metric_only: 0]
[max_delta_step: 0]
[lambda_l1: 0]
[lambda_l2: 0]
[linear_lambda: 0]
[min_gain_to_split: 0]
[drop_rate: 0.1]
[max_drop: 50]
[skip_drop: 0.5]
[xgboost_dart_mode: 0]
[uniform_drop: 0]
[drop_seed: 4]
[top_rate: 0.2]
[other_rate: 0.1]
[min_data_per_group: 100]
[max_cat_threshold: 32]
[cat_l2: 10]
[cat_smooth: 10]
[max_cat_to_onehot: 4]
[top_k: 20]
[monotone_constraints: ]
[monotone_constraints_method: basic]
[monotone_penalty: 0]
[feature_contri: ]
[forcedsplits_filename: ]
[refit_decay_rate: 0.9]
[cegb_tradeoff: 1]
[cegb_penalty_split: 0]
[cegb_penalty_feature_lazy: ]
[cegb_penalty_feature_coupled: ]
[path_smooth: 0]
[interaction_constraints: ]
[verbosity: 1]
[saved_feature_importance_type: 0]
[use_quantized_grad: 0]
[num_grad_quant_bins: 4]
[quant_train_renew_leaf: 0]
[stochastic_rounding: 1]
[linear_tree: 0]
[max_bin: 255]
[max_bin_by_feature: ]
[min_data_in_bin: 3]
[bin_construct_sample_cnt: 200000]
[data_random_seed: 1]
[is_enable_sparse: 1]
[enable_bundle: 1]
[use_missing: 1]
[zero_as_missing: 0]
[feature_pre_filter: 1]
[pre_partition: 0]
[two_round: 0]
[header: 0]
[label_column: ]
[weight_column: ]
[group_column: ]
[ignore_column: ]
[categorical_feature: ]
[forcedbins_filename: ]
[precise_float_parser: 0]
[parser_config_file: ]
[objective_seed: 5]
[num_class: 1]
[is_unbalance: 0]
[scale_pos_weight: 1]
[sigmoid: 1]
[boost_from_average: 1]
[reg_sqrt: 0]
[alpha: 0.9]
[fair_c: 1]
[poisson_max_delta_step: 0.7]
[tweedie_variance_power: 1.5]
[lambdarank_truncation_level: 30]
[lambdarank_norm: 1]
[label_gain: ]
[lambdarank_position_bias_regularization: 0]
[eval_at: 5]
[multi_error_top_k: 1]
[auc_mu_weights: ]
[num_machines: 1]
[local_listen_port: 12400]
[time_out: 120]
[machine_list_filename: ]
[machines: ]
[gpu_platform_id: -1]
[gpu_device_id: -1]
[gpu_use_dp: 0]
[num_gpu: 1]

end of parameters

pandas_categorical:null
